Language model created by QuickLM on Fri May 23 13:16:21 EDT 2014
Copyright (c) 1996-2010 Carnegie Mellon University and Alexander I. Rudnicky

The model is in standard ARPA format, designed by Doug Paul while he was at MITRE.

The code that was used to produce this language model is available in Open Source.
Please visit http://www.speech.cs.cmu.edu/tools/ for more information

The (fixed) discount mass is 0.5. The backoffs are computed using the ratio method.
This model based on a corpus of 50 sentences and 25 words

\data\
ngram 1=25
ngram 2=73
ngram 3=77

\1-grams:
-0.8500 </s> -0.3010
-0.8500 <s> -0.1945
-1.9469 EIGHT -0.2349
-2.5490 EIGHTEEN -0.2349
-2.5490 ELEVEN -0.2349
-2.5490 FIFTEEN -0.2349
-2.5490 FIFTY -0.2349
-1.9469 FIVE -0.2349
-1.5490 FORTY -0.1802
-1.9469 FOUR -0.2349
-2.5490 FOURTEEN -0.2349
-1.9469 NINE -0.2349
-2.5490 NINETEEN -0.2349
-1.9469 ONE -0.2349
-1.9469 SEVEN -0.2349
-2.5490 SEVENTEEN -0.2349
-1.9469 SIX -0.2349
-2.5490 SIXTEEN -0.2349
-2.5490 TEN -0.2349
-2.5490 THIRTEEN -0.2349
-1.5490 THIRTY -0.1802
-1.9469 THREE -0.2349
-2.5490 TWELVE -0.2349
-1.5490 TWENTY -0.1802
-1.9469 TWO -0.2349

\2-grams:
-2.0000 <s> EIGHT 0.0000
-2.0000 <s> EIGHTEEN 0.0000
-2.0000 <s> ELEVEN 0.0000
-2.0000 <s> FIFTEEN 0.0000
-2.0000 <s> FIFTY 0.0000
-2.0000 <s> FIVE 0.0000
-1.0000 <s> FORTY 0.0000
-2.0000 <s> FOUR 0.0000
-2.0000 <s> FOURTEEN 0.0000
-2.0000 <s> NINE 0.0000
-2.0000 <s> NINETEEN 0.0000
-2.0000 <s> ONE 0.0000
-2.0000 <s> SEVEN 0.0000
-2.0000 <s> SEVENTEEN 0.0000
-2.0000 <s> SIX 0.0000
-2.0000 <s> SIXTEEN 0.0000
-2.0000 <s> TEN 0.0000
-2.0000 <s> THIRTEEN 0.0000
-1.0000 <s> THIRTY 0.0000
-2.0000 <s> THREE 0.0000
-2.0000 <s> TWELVE 0.0000
-1.0000 <s> TWENTY 0.0000
-2.0000 <s> TWO 0.0000
-0.3010 EIGHT </s> -0.3010
-0.3010 EIGHTEEN </s> -0.3010
-0.3010 ELEVEN </s> -0.3010
-0.3010 FIFTEEN </s> -0.3010
-0.3010 FIFTY </s> -0.3010
-0.3010 FIVE </s> -0.3010
-1.3010 FORTY </s> -0.3010
-1.3010 FORTY EIGHT 0.0000
-1.3010 FORTY FIVE 0.0000
-1.3010 FORTY FOUR 0.0000
-1.3010 FORTY NINE 0.0000
-1.3010 FORTY ONE 0.0000
-1.3010 FORTY SEVEN 0.0000
-1.3010 FORTY SIX 0.0000
-1.3010 FORTY THREE 0.0000
-1.3010 FORTY TWO 0.0000
-0.3010 FOUR </s> -0.3010
-0.3010 FOURTEEN </s> -0.3010
-0.3010 NINE </s> -0.3010
-0.3010 NINETEEN </s> -0.3010
-0.3010 ONE </s> -0.3010
-0.3010 SEVEN </s> -0.3010
-0.3010 SEVENTEEN </s> -0.3010
-0.3010 SIX </s> -0.3010
-0.3010 SIXTEEN </s> -0.3010
-0.3010 TEN </s> -0.3010
-0.3010 THIRTEEN </s> -0.3010
-1.3010 THIRTY </s> -0.3010
-1.3010 THIRTY EIGHT 0.0000
-1.3010 THIRTY FIVE 0.0000
-1.3010 THIRTY FOUR 0.0000
-1.3010 THIRTY NINE 0.0000
-1.3010 THIRTY ONE 0.0000
-1.3010 THIRTY SEVEN 0.0000
-1.3010 THIRTY SIX 0.0000
-1.3010 THIRTY THREE 0.0000
-1.3010 THIRTY TWO 0.0000
-0.3010 THREE </s> -0.3010
-0.3010 TWELVE </s> -0.3010
-1.3010 TWENTY </s> -0.3010
-1.3010 TWENTY EIGHT 0.0000
-1.3010 TWENTY FIVE 0.0000
-1.3010 TWENTY FOUR 0.0000
-1.3010 TWENTY NINE 0.0000
-1.3010 TWENTY ONE 0.0000
-1.3010 TWENTY SEVEN 0.0000
-1.3010 TWENTY SIX 0.0000
-1.3010 TWENTY THREE 0.0000
-1.3010 TWENTY TWO 0.0000
-0.3010 TWO </s> -0.3010

\3-grams:
-0.3010 <s> EIGHT </s>
-0.3010 <s> EIGHTEEN </s>
-0.3010 <s> ELEVEN </s>
-0.3010 <s> FIFTEEN </s>
-0.3010 <s> FIFTY </s>
-0.3010 <s> FIVE </s>
-1.3010 <s> FORTY </s>
-1.3010 <s> FORTY EIGHT
-1.3010 <s> FORTY FIVE
-1.3010 <s> FORTY FOUR
-1.3010 <s> FORTY NINE
-1.3010 <s> FORTY ONE
-1.3010 <s> FORTY SEVEN
-1.3010 <s> FORTY SIX
-1.3010 <s> FORTY THREE
-1.3010 <s> FORTY TWO
-0.3010 <s> FOUR </s>
-0.3010 <s> FOURTEEN </s>
-0.3010 <s> NINE </s>
-0.3010 <s> NINETEEN </s>
-0.3010 <s> ONE </s>
-0.3010 <s> SEVEN </s>
-0.3010 <s> SEVENTEEN </s>
-0.3010 <s> SIX </s>
-0.3010 <s> SIXTEEN </s>
-0.3010 <s> TEN </s>
-0.3010 <s> THIRTEEN </s>
-1.3010 <s> THIRTY </s>
-1.3010 <s> THIRTY EIGHT
-1.3010 <s> THIRTY FIVE
-1.3010 <s> THIRTY FOUR
-1.3010 <s> THIRTY NINE
-1.3010 <s> THIRTY ONE
-1.3010 <s> THIRTY SEVEN
-1.3010 <s> THIRTY SIX
-1.3010 <s> THIRTY THREE
-1.3010 <s> THIRTY TWO
-0.3010 <s> THREE </s>
-0.3010 <s> TWELVE </s>
-1.3010 <s> TWENTY </s>
-1.3010 <s> TWENTY EIGHT
-1.3010 <s> TWENTY FIVE
-1.3010 <s> TWENTY FOUR
-1.3010 <s> TWENTY NINE
-1.3010 <s> TWENTY ONE
-1.3010 <s> TWENTY SEVEN
-1.3010 <s> TWENTY SIX
-1.3010 <s> TWENTY THREE
-1.3010 <s> TWENTY TWO
-0.3010 <s> TWO </s>
-0.3010 FORTY EIGHT </s>
-0.3010 FORTY FIVE </s>
-0.3010 FORTY FOUR </s>
-0.3010 FORTY NINE </s>
-0.3010 FORTY ONE </s>
-0.3010 FORTY SEVEN </s>
-0.3010 FORTY SIX </s>
-0.3010 FORTY THREE </s>
-0.3010 FORTY TWO </s>
-0.3010 THIRTY EIGHT </s>
-0.3010 THIRTY FIVE </s>
-0.3010 THIRTY FOUR </s>
-0.3010 THIRTY NINE </s>
-0.3010 THIRTY ONE </s>
-0.3010 THIRTY SEVEN </s>
-0.3010 THIRTY SIX </s>
-0.3010 THIRTY THREE </s>
-0.3010 THIRTY TWO </s>
-0.3010 TWENTY EIGHT </s>
-0.3010 TWENTY FIVE </s>
-0.3010 TWENTY FOUR </s>
-0.3010 TWENTY NINE </s>
-0.3010 TWENTY ONE </s>
-0.3010 TWENTY SEVEN </s>
-0.3010 TWENTY SIX </s>
-0.3010 TWENTY THREE </s>
-0.3010 TWENTY TWO </s>

\end\