Language model created by QuickLM on Fri May 23 12:57:01 EDT 2014
Copyright (c) 1996-2010 Carnegie Mellon University and Alexander I. Rudnicky

The model is in standard ARPA format, designed by Doug Paul while he was at MITRE.

The code that was used to produce this language model is available in Open Source.
Please visit http://www.speech.cs.cmu.edu/tools/ for more information

The (fixed) discount mass is 0.5. The backoffs are computed using the ratio method.
This model based on a corpus of 99 sentences and 101 words

\data\
ngram 1=101
ngram 2=198
ngram 3=99

\1-grams:
-2.7738 1 -0.2218
-2.7738 10 -0.2218
-2.7738 100 -0.2218
-2.7738 11 -0.2218
-2.7738 12 -0.2218
-2.7738 13 -0.2218
-2.7738 14 -0.2218
-2.7738 15 -0.2218
-2.7738 16 -0.2218
-2.7738 17 -0.2218
-2.7738 18 -0.2218
-2.7738 19 -0.2218
-2.7738 2 -0.2218
-2.7738 20 -0.2218
-2.7738 21 -0.2218
-2.7738 22 -0.2218
-2.7738 23 -0.2218
-2.7738 24 -0.2218
-2.7738 25 -0.2218
-2.7738 26 -0.2218
-2.7738 27 -0.2218
-2.7738 28 -0.2218
-2.7738 29 -0.2218
-2.7738 3 -0.2218
-2.7738 30 -0.2218
-2.7738 31 -0.2218
-2.7738 32 -0.2218
-2.7738 33 -0.2218
-2.7738 34 -0.2218
-2.7738 35 -0.2218
-2.7738 36 -0.2218
-2.7738 37 -0.2218
-2.7738 39 -0.2218
-2.7738 4 -0.2218
-2.7738 40 -0.2218
-2.7738 41 -0.2218
-2.7738 42 -0.2218
-2.7738 43 -0.2218
-2.7738 44 -0.2218
-2.7738 45 -0.2218
-2.7738 46 -0.2218
-2.7738 47 -0.2218
-2.7738 48 -0.2218
-2.7738 49 -0.2218
-2.7738 5 -0.2218
-2.7738 50 -0.2218
-2.7738 51 -0.2218
-2.7738 52 -0.2218
-2.7738 53 -0.2218
-2.7738 54 -0.2218
-2.7738 55 -0.2218
-2.7738 56 -0.2218
-2.7738 57 -0.2218
-2.7738 58 -0.2218
-2.7738 59 -0.2218
-2.7738 6 -0.2218
-2.7738 60 -0.2218
-2.7738 61 -0.2218
-2.7738 62 -0.2218
-2.7738 63 -0.2218
-2.7738 64 -0.2218
-2.7738 65 -0.2218
-2.7738 66 -0.2218
-2.7738 67 -0.2218
-2.7738 68 -0.2218
-2.7738 69 -0.2218
-2.7738 7 -0.2218
-2.7738 70 -0.2218
-2.7738 71 -0.2218
-2.7738 72 -0.2218
-2.7738 73 -0.2218
-2.7738 74 -0.2218
-2.7738 75 -0.2218
-2.7738 76 -0.2218
-2.7738 77 -0.2218
-2.7738 78 -0.2218
-2.7738 79 -0.2218
-2.7738 8 -0.2218
-2.7738 80 -0.2218
-2.7738 81 -0.2218
-2.7738 82 -0.2218
-2.7738 83 -0.2218
-2.7738 84 -0.2218
-2.7738 85 -0.2218
-2.7738 86 -0.2218
-2.7738 87 -0.2218
-2.7738 88 -0.2218
-2.7738 89 -0.2218
-2.7738 9 -0.2218
-2.7738 90 -0.2218
-2.7738 91 -0.2218
-2.7738 92 -0.2218
-2.7738 93 -0.2218
-2.7738 94 -0.2218
-2.7738 95 -0.2218
-2.7738 96 -0.2218
-2.7738 97 -0.2218
-2.7738 98 -0.2218
-2.7738 99 -0.2218
-0.7782 </s> -0.3010
-0.7782 <s> -0.2218

\2-grams:
-0.3010 1 </s> -0.3010
-0.3010 10 </s> -0.3010
-0.3010 100 </s> -0.3010
-0.3010 11 </s> -0.3010
-0.3010 12 </s> -0.3010
-0.3010 13 </s> -0.3010
-0.3010 14 </s> -0.3010
-0.3010 15 </s> -0.3010
-0.3010 16 </s> -0.3010
-0.3010 17 </s> -0.3010
-0.3010 18 </s> -0.3010
-0.3010 19 </s> -0.3010
-0.3010 2 </s> -0.3010
-0.3010 20 </s> -0.3010
-0.3010 21 </s> -0.3010
-0.3010 22 </s> -0.3010
-0.3010 23 </s> -0.3010
-0.3010 24 </s> -0.3010
-0.3010 25 </s> -0.3010
-0.3010 26 </s> -0.3010
-0.3010 27 </s> -0.3010
-0.3010 28 </s> -0.3010
-0.3010 29 </s> -0.3010
-0.3010 3 </s> -0.3010
-0.3010 30 </s> -0.3010
-0.3010 31 </s> -0.3010
-0.3010 32 </s> -0.3010
-0.3010 33 </s> -0.3010
-0.3010 34 </s> -0.3010
-0.3010 35 </s> -0.3010
-0.3010 36 </s> -0.3010
-0.3010 37 </s> -0.3010
-0.3010 39 </s> -0.3010
-0.3010 4 </s> -0.3010
-0.3010 40 </s> -0.3010
-0.3010 41 </s> -0.3010
-0.3010 42 </s> -0.3010
-0.3010 43 </s> -0.3010
-0.3010 44 </s> -0.3010
-0.3010 45 </s> -0.3010
-0.3010 46 </s> -0.3010
-0.3010 47 </s> -0.3010
-0.3010 48 </s> -0.3010
-0.3010 49 </s> -0.3010
-0.3010 5 </s> -0.3010
-0.3010 50 </s> -0.3010
-0.3010 51 </s> -0.3010
-0.3010 52 </s> -0.3010
-0.3010 53 </s> -0.3010
-0.3010 54 </s> -0.3010
-0.3010 55 </s> -0.3010
-0.3010 56 </s> -0.3010
-0.3010 57 </s> -0.3010
-0.3010 58 </s> -0.3010
-0.3010 59 </s> -0.3010
-0.3010 6 </s> -0.3010
-0.3010 60 </s> -0.3010
-0.3010 61 </s> -0.3010
-0.3010 62 </s> -0.3010
-0.3010 63 </s> -0.3010
-0.3010 64 </s> -0.3010
-0.3010 65 </s> -0.3010
-0.3010 66 </s> -0.3010
-0.3010 67 </s> -0.3010
-0.3010 68 </s> -0.3010
-0.3010 69 </s> -0.3010
-0.3010 7 </s> -0.3010
-0.3010 70 </s> -0.3010
-0.3010 71 </s> -0.3010
-0.3010 72 </s> -0.3010
-0.3010 73 </s> -0.3010
-0.3010 74 </s> -0.3010
-0.3010 75 </s> -0.3010
-0.3010 76 </s> -0.3010
-0.3010 77 </s> -0.3010
-0.3010 78 </s> -0.3010
-0.3010 79 </s> -0.3010
-0.3010 8 </s> -0.3010
-0.3010 80 </s> -0.3010
-0.3010 81 </s> -0.3010
-0.3010 82 </s> -0.3010
-0.3010 83 </s> -0.3010
-0.3010 84 </s> -0.3010
-0.3010 85 </s> -0.3010
-0.3010 86 </s> -0.3010
-0.3010 87 </s> -0.3010
-0.3010 88 </s> -0.3010
-0.3010 89 </s> -0.3010
-0.3010 9 </s> -0.3010
-0.3010 90 </s> -0.3010
-0.3010 91 </s> -0.3010
-0.3010 92 </s> -0.3010
-0.3010 93 </s> -0.3010
-0.3010 94 </s> -0.3010
-0.3010 95 </s> -0.3010
-0.3010 96 </s> -0.3010
-0.3010 97 </s> -0.3010
-0.3010 98 </s> -0.3010
-0.3010 99 </s> -0.3010
-2.2967 <s> 1 0.0000
-2.2967 <s> 10 0.0000
-2.2967 <s> 100 0.0000
-2.2967 <s> 11 0.0000
-2.2967 <s> 12 0.0000
-2.2967 <s> 13 0.0000
-2.2967 <s> 14 0.0000
-2.2967 <s> 15 0.0000
-2.2967 <s> 16 0.0000
-2.2967 <s> 17 0.0000
-2.2967 <s> 18 0.0000
-2.2967 <s> 19 0.0000
-2.2967 <s> 2 0.0000
-2.2967 <s> 20 0.0000
-2.2967 <s> 21 0.0000
-2.2967 <s> 22 0.0000
-2.2967 <s> 23 0.0000
-2.2967 <s> 24 0.0000
-2.2967 <s> 25 0.0000
-2.2967 <s> 26 0.0000
-2.2967 <s> 27 0.0000
-2.2967 <s> 28 0.0000
-2.2967 <s> 29 0.0000
-2.2967 <s> 3 0.0000
-2.2967 <s> 30 0.0000
-2.2967 <s> 31 0.0000
-2.2967 <s> 32 0.0000
-2.2967 <s> 33 0.0000
-2.2967 <s> 34 0.0000
-2.2967 <s> 35 0.0000
-2.2967 <s> 36 0.0000
-2.2967 <s> 37 0.0000
-2.2967 <s> 39 0.0000
-2.2967 <s> 4 0.0000
-2.2967 <s> 40 0.0000
-2.2967 <s> 41 0.0000
-2.2967 <s> 42 0.0000
-2.2967 <s> 43 0.0000
-2.2967 <s> 44 0.0000
-2.2967 <s> 45 0.0000
-2.2967 <s> 46 0.0000
-2.2967 <s> 47 0.0000
-2.2967 <s> 48 0.0000
-2.2967 <s> 49 0.0000
-2.2967 <s> 5 0.0000
-2.2967 <s> 50 0.0000
-2.2967 <s> 51 0.0000
-2.2967 <s> 52 0.0000
-2.2967 <s> 53 0.0000
-2.2967 <s> 54 0.0000
-2.2967 <s> 55 0.0000
-2.2967 <s> 56 0.0000
-2.2967 <s> 57 0.0000
-2.2967 <s> 58 0.0000
-2.2967 <s> 59 0.0000
-2.2967 <s> 6 0.0000
-2.2967 <s> 60 0.0000
-2.2967 <s> 61 0.0000
-2.2967 <s> 62 0.0000
-2.2967 <s> 63 0.0000
-2.2967 <s> 64 0.0000
-2.2967 <s> 65 0.0000
-2.2967 <s> 66 0.0000
-2.2967 <s> 67 0.0000
-2.2967 <s> 68 0.0000
-2.2967 <s> 69 0.0000
-2.2967 <s> 7 0.0000
-2.2967 <s> 70 0.0000
-2.2967 <s> 71 0.0000
-2.2967 <s> 72 0.0000
-2.2967 <s> 73 0.0000
-2.2967 <s> 74 0.0000
-2.2967 <s> 75 0.0000
-2.2967 <s> 76 0.0000
-2.2967 <s> 77 0.0000
-2.2967 <s> 78 0.0000
-2.2967 <s> 79 0.0000
-2.2967 <s> 8 0.0000
-2.2967 <s> 80 0.0000
-2.2967 <s> 81 0.0000
-2.2967 <s> 82 0.0000
-2.2967 <s> 83 0.0000
-2.2967 <s> 84 0.0000
-2.2967 <s> 85 0.0000
-2.2967 <s> 86 0.0000
-2.2967 <s> 87 0.0000
-2.2967 <s> 88 0.0000
-2.2967 <s> 89 0.0000
-2.2967 <s> 9 0.0000
-2.2967 <s> 90 0.0000
-2.2967 <s> 91 0.0000
-2.2967 <s> 92 0.0000
-2.2967 <s> 93 0.0000
-2.2967 <s> 94 0.0000
-2.2967 <s> 95 0.0000
-2.2967 <s> 96 0.0000
-2.2967 <s> 97 0.0000
-2.2967 <s> 98 0.0000
-2.2967 <s> 99 0.0000

\3-grams:
-0.3010 <s> 1 </s>
-0.3010 <s> 10 </s>
-0.3010 <s> 100 </s>
-0.3010 <s> 11 </s>
-0.3010 <s> 12 </s>
-0.3010 <s> 13 </s>
-0.3010 <s> 14 </s>
-0.3010 <s> 15 </s>
-0.3010 <s> 16 </s>
-0.3010 <s> 17 </s>
-0.3010 <s> 18 </s>
-0.3010 <s> 19 </s>
-0.3010 <s> 2 </s>
-0.3010 <s> 20 </s>
-0.3010 <s> 21 </s>
-0.3010 <s> 22 </s>
-0.3010 <s> 23 </s>
-0.3010 <s> 24 </s>
-0.3010 <s> 25 </s>
-0.3010 <s> 26 </s>
-0.3010 <s> 27 </s>
-0.3010 <s> 28 </s>
-0.3010 <s> 29 </s>
-0.3010 <s> 3 </s>
-0.3010 <s> 30 </s>
-0.3010 <s> 31 </s>
-0.3010 <s> 32 </s>
-0.3010 <s> 33 </s>
-0.3010 <s> 34 </s>
-0.3010 <s> 35 </s>
-0.3010 <s> 36 </s>
-0.3010 <s> 37 </s>
-0.3010 <s> 39 </s>
-0.3010 <s> 4 </s>
-0.3010 <s> 40 </s>
-0.3010 <s> 41 </s>
-0.3010 <s> 42 </s>
-0.3010 <s> 43 </s>
-0.3010 <s> 44 </s>
-0.3010 <s> 45 </s>
-0.3010 <s> 46 </s>
-0.3010 <s> 47 </s>
-0.3010 <s> 48 </s>
-0.3010 <s> 49 </s>
-0.3010 <s> 5 </s>
-0.3010 <s> 50 </s>
-0.3010 <s> 51 </s>
-0.3010 <s> 52 </s>
-0.3010 <s> 53 </s>
-0.3010 <s> 54 </s>
-0.3010 <s> 55 </s>
-0.3010 <s> 56 </s>
-0.3010 <s> 57 </s>
-0.3010 <s> 58 </s>
-0.3010 <s> 59 </s>
-0.3010 <s> 6 </s>
-0.3010 <s> 60 </s>
-0.3010 <s> 61 </s>
-0.3010 <s> 62 </s>
-0.3010 <s> 63 </s>
-0.3010 <s> 64 </s>
-0.3010 <s> 65 </s>
-0.3010 <s> 66 </s>
-0.3010 <s> 67 </s>
-0.3010 <s> 68 </s>
-0.3010 <s> 69 </s>
-0.3010 <s> 7 </s>
-0.3010 <s> 70 </s>
-0.3010 <s> 71 </s>
-0.3010 <s> 72 </s>
-0.3010 <s> 73 </s>
-0.3010 <s> 74 </s>
-0.3010 <s> 75 </s>
-0.3010 <s> 76 </s>
-0.3010 <s> 77 </s>
-0.3010 <s> 78 </s>
-0.3010 <s> 79 </s>
-0.3010 <s> 8 </s>
-0.3010 <s> 80 </s>
-0.3010 <s> 81 </s>
-0.3010 <s> 82 </s>
-0.3010 <s> 83 </s>
-0.3010 <s> 84 </s>
-0.3010 <s> 85 </s>
-0.3010 <s> 86 </s>
-0.3010 <s> 87 </s>
-0.3010 <s> 88 </s>
-0.3010 <s> 89 </s>
-0.3010 <s> 9 </s>
-0.3010 <s> 90 </s>
-0.3010 <s> 91 </s>
-0.3010 <s> 92 </s>
-0.3010 <s> 93 </s>
-0.3010 <s> 94 </s>
-0.3010 <s> 95 </s>
-0.3010 <s> 96 </s>
-0.3010 <s> 97 </s>
-0.3010 <s> 98 </s>
-0.3010 <s> 99 </s>

\end\