Language model created by QuickLM on Mon Aug  4 15:56:48 EDT 2014
Copyright (c) 1996-2010 Carnegie Mellon University and Alexander I. Rudnicky

The model is in standard ARPA format, designed by Doug Paul while he was at MITRE.

The code that was used to produce this language model is available in Open Source.
Please visit http://www.speech.cs.cmu.edu/tools/ for more information

The (fixed) discount mass is 0.5. The backoffs are computed using the ratio method.
This model based on a corpus of 10 sentences and 12 words

\data\
ngram 1=12
ngram 2=20
ngram 3=10

\1-grams:
-0.7782 </s> -0.3010
-0.7782 <s> -0.2218
-1.7782 BLACK -0.2218
-1.7782 BLUE -0.2218
-1.7782 GRAY -0.2218
-1.7782 GREEN -0.2218
-1.7782 ORANGE -0.2218
-1.7782 PINK -0.2218
-1.7782 PURPLE -0.2218
-1.7782 RED -0.2218
-1.7782 WHITE -0.2218
-1.7782 YELLOW -0.2218

\2-grams:
-1.3010 <s> BLACK 0.0000
-1.3010 <s> BLUE 0.0000
-1.3010 <s> GRAY 0.0000
-1.3010 <s> GREEN 0.0000
-1.3010 <s> ORANGE 0.0000
-1.3010 <s> PINK 0.0000
-1.3010 <s> PURPLE 0.0000
-1.3010 <s> RED 0.0000
-1.3010 <s> WHITE 0.0000
-1.3010 <s> YELLOW 0.0000
-0.3010 BLACK </s> -0.3010
-0.3010 BLUE </s> -0.3010
-0.3010 GRAY </s> -0.3010
-0.3010 GREEN </s> -0.3010
-0.3010 ORANGE </s> -0.3010
-0.3010 PINK </s> -0.3010
-0.3010 PURPLE </s> -0.3010
-0.3010 RED </s> -0.3010
-0.3010 WHITE </s> -0.3010
-0.3010 YELLOW </s> -0.3010

\3-grams:
-0.3010 <s> BLACK </s>
-0.3010 <s> BLUE </s>
-0.3010 <s> GRAY </s>
-0.3010 <s> GREEN </s>
-0.3010 <s> ORANGE </s>
-0.3010 <s> PINK </s>
-0.3010 <s> PURPLE </s>
-0.3010 <s> RED </s>
-0.3010 <s> WHITE </s>
-0.3010 <s> YELLOW </s>

\end\