Language model created by QuickLM on Fri May 23 09:19:14 EDT 2014
Copyright (c) 1996-2010 Carnegie Mellon University and Alexander I. Rudnicky

The model is in standard ARPA format, designed by Doug Paul while he was at MITRE.

The code that was used to produce this language model is available in Open Source.
Please visit http://www.speech.cs.cmu.edu/tools/ for more information

The (fixed) discount mass is 0.5. The backoffs are computed using the ratio method.
This model based on a corpus of 29 sentences and 43 words

\data\
ngram 1=43
ngram 2=72
ngram 3=63

\1-grams:
-0.9526 </s> -0.3010
-0.9526 <s> -0.2497
-2.1139 A -0.2977
-2.4150 BACKWARD -0.2497
-2.1139 CONNOR -0.2497
-2.4150 DAY -0.2857
-2.4150 DOWN -0.2497
-2.4150 FORWARD -0.2497
-1.4607 IS -0.2770
-2.4150 JOKE -0.2497
-2.1139 KIM -0.2497
-2.4150 LEFT -0.2497
-2.1139 ME -0.2977
-1.7160 MEET -0.2840
-2.4150 NAME -0.2497
-2.1139 NICK -0.2497
-2.4150 PICK -0.2994
-2.4150 PICKUP -0.2497
-2.4150 PICTURE -0.2497
-2.4150 PROBLEM -0.2497
-2.4150 RIDDLE -0.2497
-2.4150 RIGHT -0.2497
-2.4150 RUN -0.2994
-2.1139 SCOTT -0.2497
-2.4150 SEQUENCE -0.2994
-2.4150 SET -0.2994
-2.4150 SHUTDOWN -0.2497
-2.4150 SLEEP -0.2497
-2.4150 STOP -0.2497
-2.1139 TAKE -0.2977
-2.1139 TELL -0.2977
-2.4150 TEST -0.2497
-2.4150 THE -0.2994
-2.4150 TIME -0.2497
-2.4150 TODAY -0.2497
-2.1139 TURN -0.2977
-2.1139 TYLER -0.2497
-2.4150 UP -0.2497
-2.4150 VIDEO -0.2497
-2.1139 WALK -0.2977
-1.8129 WHAT -0.2840
-1.7160 WHO -0.2857
-2.1139 YOUR -0.2977

\2-grams:
-1.0645 <s> MEET 0.0000
-1.7634 <s> PICK 0.0000
-1.7634 <s> PICKUP 0.0000
-1.7634 <s> RUN 0.0000
-1.7634 <s> SET 0.0000
-1.7634 <s> SHUTDOWN 0.0000
-1.7634 <s> SLEEP 0.0000
-1.7634 <s> STOP 0.0000
-1.4624 <s> TAKE 0.0000
-1.4624 <s> TELL 0.0000
-1.4624 <s> TURN 0.0000
-1.4624 <s> WALK 0.0000
-1.1614 <s> WHAT 0.0000
-1.0645 <s> WHO 0.0000
-0.6021 A JOKE 0.0000
-0.6021 A RIDDLE 0.0000
-0.3010 BACKWARD </s> -0.3010
-0.3010 CONNOR </s> -0.3010
-0.3010 DAY IS -0.2762
-0.3010 DOWN </s> -0.3010
-0.3010 FORWARD </s> -0.3010
-1.2553 IS CONNOR 0.0000
-1.2553 IS KIM 0.0000
-1.2553 IS NICK 0.0000
-1.2553 IS SCOTT 0.0000
-1.2553 IS THE 0.0000
-1.2553 IS TODAY 0.0000
-1.2553 IS TYLER 0.0000
-0.9542 IS YOUR 0.0000
-0.3010 JOKE </s> -0.3010
-0.3010 KIM </s> -0.3010
-0.3010 LEFT </s> -0.3010
-0.3010 ME A 0.0000
-1.0000 MEET CONNOR 0.0000
-1.0000 MEET KIM 0.0000
-1.0000 MEET NICK 0.0000
-1.0000 MEET SCOTT 0.0000
-1.0000 MEET TYLER 0.0000
-0.3010 NAME </s> -0.3010
-0.3010 NICK </s> -0.3010
-0.3010 PICK UP 0.0000
-0.3010 PICKUP </s> -0.3010
-0.3010 PICTURE </s> -0.3010
-0.3010 PROBLEM </s> -0.3010
-0.3010 RIDDLE </s> -0.3010
-0.3010 RIGHT </s> -0.3010
-0.3010 RUN SEQUENCE 0.0000
-0.3010 SCOTT </s> -0.3010
-0.3010 SEQUENCE TEST 0.0000
-0.3010 SET DOWN 0.0000
-0.3010 SHUTDOWN </s> -0.3010
-0.3010 SLEEP </s> -0.3010
-0.3010 STOP </s> -0.3010
-0.6021 TAKE PICTURE 0.0000
-0.6021 TAKE VIDEO 0.0000
-0.3010 TELL ME 0.0000
-0.3010 TEST </s> -0.3010
-0.3010 THE TIME 0.0000
-0.3010 TIME </s> -0.3010
-0.3010 TODAY </s> -0.3010
-0.6021 TURN LEFT 0.0000
-0.6021 TURN RIGHT 0.0000
-0.3010 TYLER </s> -0.3010
-0.3010 UP </s> -0.3010
-0.3010 VIDEO </s> -0.3010
-0.6021 WALK BACKWARD 0.0000
-0.6021 WALK FORWARD 0.0000
-0.9031 WHAT DAY 0.0000
-0.4260 WHAT IS -0.2218
-0.3010 WHO IS -0.1597
-0.6021 YOUR NAME 0.0000
-0.6021 YOUR PROBLEM 0.0000

\3-grams:
-1.0000 <s> MEET CONNOR
-1.0000 <s> MEET KIM
-1.0000 <s> MEET NICK
-1.0000 <s> MEET SCOTT
-1.0000 <s> MEET TYLER
-0.3010 <s> PICK UP
-0.3010 <s> PICKUP </s>
-0.3010 <s> RUN SEQUENCE
-0.3010 <s> SET DOWN
-0.3010 <s> SHUTDOWN </s>
-0.3010 <s> SLEEP </s>
-0.3010 <s> STOP </s>
-0.6021 <s> TAKE PICTURE
-0.6021 <s> TAKE VIDEO
-0.3010 <s> TELL ME
-0.6021 <s> TURN LEFT
-0.6021 <s> TURN RIGHT
-0.6021 <s> WALK BACKWARD
-0.6021 <s> WALK FORWARD
-0.9031 <s> WHAT DAY
-0.4260 <s> WHAT IS
-0.3010 <s> WHO IS
-0.3010 A JOKE </s>
-0.3010 A RIDDLE </s>
-0.3010 DAY IS TODAY
-0.3010 IS CONNOR </s>
-0.3010 IS KIM </s>
-0.3010 IS NICK </s>
-0.3010 IS SCOTT </s>
-0.3010 IS THE TIME
-0.3010 IS TODAY </s>
-0.3010 IS TYLER </s>
-0.6021 IS YOUR NAME
-0.6021 IS YOUR PROBLEM
-0.6021 ME A JOKE
-0.6021 ME A RIDDLE
-0.3010 MEET CONNOR </s>
-0.3010 MEET KIM </s>
-0.3010 MEET NICK </s>
-0.3010 MEET SCOTT </s>
-0.3010 MEET TYLER </s>
-0.3010 PICK UP </s>
-0.3010 RUN SEQUENCE TEST
-0.3010 SEQUENCE TEST </s>
-0.3010 SET DOWN </s>
-0.3010 TAKE PICTURE </s>
-0.3010 TAKE VIDEO </s>
-0.3010 TELL ME A
-0.3010 THE TIME </s>
-0.3010 TURN LEFT </s>
-0.3010 TURN RIGHT </s>
-0.3010 WALK BACKWARD </s>
-0.3010 WALK FORWARD </s>
-0.3010 WHAT DAY IS
-0.7782 WHAT IS THE
-0.4771 WHAT IS YOUR
-1.0000 WHO IS CONNOR
-1.0000 WHO IS KIM
-1.0000 WHO IS NICK
-1.0000 WHO IS SCOTT
-1.0000 WHO IS TYLER
-0.3010 YOUR NAME </s>
-0.3010 YOUR PROBLEM </s>

\end\