Language model created by QuickLM on Thu Apr 17 13:03:50 EDT 2014
Copyright (c) 1996-2010 Carnegie Mellon University and Alexander I. Rudnicky

The model is in standard ARPA format, designed by Doug Paul while he was at MITRE.

The code that was used to produce this language model is available in Open Source.
Please visit http://www.speech.cs.cmu.edu/tools/ for more information

The (fixed) discount mass is 0.5. The backoffs are computed using the ratio method.
This model based on a corpus of 19 sentences and 36 words

\data\
ngram 1=36
ngram 2=54
ngram 3=44

\1-grams:
-0.9813 </s> -0.3010
-0.9813 <s> -0.2531
-1.9590 A -0.2962
-2.2601 ADDRESS -0.2531
-2.2601 BACKWARD -0.2531
-2.2601 DAY -0.2865
-2.2601 DOWN -0.2531
-2.2601 EMAIL -0.2986
-2.2601 FORWARD -0.2531
-1.4819 IS -0.2865
-2.2601 JOKE -0.2531
-2.2601 LEFT -0.2531
-1.9590 ME -0.2962
-2.2601 NAME -0.2531
-2.2601 NUMBER -0.2531
-2.2601 PHONE -0.2986
-2.2601 PICK -0.2986
-2.2601 PICKUP -0.2531
-2.2601 PICTURE -0.2531
-2.2601 PROBLEM -0.2531
-2.2601 RIDDLE -0.2531
-2.2601 RIGHT -0.2531
-2.2601 SET -0.2986
-2.2601 SHUTDOWN -0.2531
-2.2601 STOP -0.2531
-1.9590 TAKE -0.2962
-1.9590 TELL -0.2962
-2.2601 THE -0.2986
-2.2601 TIME -0.2531
-2.2601 TODAY -0.2531
-1.9590 TURN -0.2962
-2.2601 UP -0.2531
-2.2601 VIDEO -0.2531
-1.9590 WALK -0.2962
-1.4819 WHAT -0.2840
-1.6580 YOUR -0.2914

\2-grams:
-1.5798 <s> PICK 0.0000
-1.5798 <s> PICKUP 0.0000
-1.5798 <s> SET 0.0000
-1.5798 <s> SHUTDOWN 0.0000
-1.5798 <s> STOP 0.0000
-1.2788 <s> TAKE 0.0000
-1.2788 <s> TELL 0.0000
-1.2788 <s> TURN 0.0000
-1.2788 <s> WALK 0.0000
-0.8016 <s> WHAT 0.0000
-0.6021 A JOKE 0.0000
-0.6021 A RIDDLE 0.0000
-0.3010 ADDRESS </s> -0.3010
-0.3010 BACKWARD </s> -0.3010
-0.3010 DAY IS -0.2632
-0.3010 DOWN </s> -0.3010
-0.3010 EMAIL ADDRESS 0.0000
-0.3010 FORWARD </s> -0.3010
-1.0792 IS THE 0.0000
-1.0792 IS TODAY 0.0000
-0.4771 IS YOUR 0.0000
-0.3010 JOKE </s> -0.3010
-0.3010 LEFT </s> -0.3010
-0.3010 ME A 0.0000
-0.3010 NAME </s> -0.3010
-0.3010 NUMBER </s> -0.3010
-0.3010 PHONE NUMBER 0.0000
-0.3010 PICK UP 0.0000
-0.3010 PICKUP </s> -0.3010
-0.3010 PICTURE </s> -0.3010
-0.3010 PROBLEM </s> -0.3010
-0.3010 RIDDLE </s> -0.3010
-0.3010 RIGHT </s> -0.3010
-0.3010 SET DOWN 0.0000
-0.3010 SHUTDOWN </s> -0.3010
-0.3010 STOP </s> -0.3010
-0.6021 TAKE PICTURE 0.0000
-0.6021 TAKE VIDEO 0.0000
-0.3010 TELL ME 0.0000
-0.3010 THE TIME 0.0000
-0.3010 TIME </s> -0.3010
-0.3010 TODAY </s> -0.3010
-0.6021 TURN LEFT 0.0000
-0.6021 TURN RIGHT 0.0000
-0.3010 UP </s> -0.3010
-0.3010 VIDEO </s> -0.3010
-0.6021 WALK BACKWARD 0.0000
-0.6021 WALK FORWARD 0.0000
-1.0792 WHAT DAY 0.0000
-0.3802 WHAT IS -0.0669
-0.9031 YOUR EMAIL 0.0000
-0.9031 YOUR NAME 0.0000
-0.9031 YOUR PHONE 0.0000
-0.9031 YOUR PROBLEM 0.0000

\3-grams:
-0.3010 <s> PICK UP
-0.3010 <s> PICKUP </s>
-0.3010 <s> SET DOWN
-0.3010 <s> SHUTDOWN </s>
-0.3010 <s> STOP </s>
-0.6021 <s> TAKE PICTURE
-0.6021 <s> TAKE VIDEO
-0.3010 <s> TELL ME
-0.6021 <s> TURN LEFT
-0.6021 <s> TURN RIGHT
-0.6021 <s> WALK BACKWARD
-0.6021 <s> WALK FORWARD
-1.0792 <s> WHAT DAY
-0.3802 <s> WHAT IS
-0.3010 A JOKE </s>
-0.3010 A RIDDLE </s>
-0.3010 DAY IS TODAY
-0.3010 EMAIL ADDRESS </s>
-0.3010 IS THE TIME
-0.3010 IS TODAY </s>
-0.9031 IS YOUR EMAIL
-0.9031 IS YOUR NAME
-0.9031 IS YOUR PHONE
-0.9031 IS YOUR PROBLEM
-0.6021 ME A JOKE
-0.6021 ME A RIDDLE
-0.3010 PHONE NUMBER </s>
-0.3010 PICK UP </s>
-0.3010 SET DOWN </s>
-0.3010 TAKE PICTURE </s>
-0.3010 TAKE VIDEO </s>
-0.3010 TELL ME A
-0.3010 THE TIME </s>
-0.3010 TURN LEFT </s>
-0.3010 TURN RIGHT </s>
-0.3010 WALK BACKWARD </s>
-0.3010 WALK FORWARD </s>
-0.3010 WHAT DAY IS
-1.0000 WHAT IS THE
-0.3979 WHAT IS YOUR
-0.3010 YOUR EMAIL ADDRESS
-0.3010 YOUR NAME </s>
-0.3010 YOUR PHONE NUMBER
-0.3010 YOUR PROBLEM </s>

\end\