Language model created by QuickLM on Mon Jul 14 07:57:11 EDT 2014
Copyright (c) 1996-2010 Carnegie Mellon University and Alexander I. Rudnicky

The model is in standard ARPA format, designed by Doug Paul while he was at MITRE.

The code that was used to produce this language model is available in Open Source.
Please visit http://www.speech.cs.cmu.edu/tools/ for more information

The (fixed) discount mass is 0.5. The backoffs are computed using the ratio method.
This model based on a corpus of 35 sentences and 45 words

\data\
ngram 1=45
ngram 2=80
ngram 3=77

\1-grams:
-0.9611 </s> -0.3010
-0.9611 <s> -0.2507
-2.2041 A -0.2983
-2.2041 ADAM -0.2507
-2.5051 BACKWARD -0.2507
-2.2041 CONNOR -0.2507
-2.2041 DANIEL -0.2507
-2.5051 DAY -0.2830
-2.5051 DOWN -0.2507
-2.5051 FORWARD -0.2507
-2.5051 GO -0.2997
-1.3912 IS -0.2701
-2.5051 JOKE -0.2507
-2.2041 KIM -0.2507
-2.5051 LEFT -0.2507
-2.2041 ME -0.2983
-1.5509 MEET -0.2759
-2.5051 NAME -0.2507
-2.2041 NICK -0.2507
-2.2041 PAUL -0.2507
-2.5051 PICK -0.2997
-2.5051 PICKUP -0.2507
-2.5051 PICTURE -0.2507
-2.5051 PROBLEM -0.2507
-2.2041 REBEKAH -0.2507
-2.5051 RIDDLE -0.2507
-2.5051 RIGHT -0.2507
-2.2041 SCOTT -0.2507
-2.5051 SET -0.2997
-2.5051 SHUTDOWN -0.2507
-2.5051 SLEEP -0.2507
-2.2041 TAKE -0.2983
-2.2041 TELL -0.2983
-2.5051 THE -0.2997
-2.5051 TIME -0.2507
-2.5051 TO -0.2997
-2.5051 TODAY -0.2507
-2.2041 TURN -0.2983
-2.2041 TYLER -0.2507
-2.5051 UP -0.2507
-2.5051 VIDEO -0.2507
-2.2041 WALK -0.2983
-1.9031 WHAT -0.2816
-1.5509 WHO -0.2830
-2.2041 YOUR -0.2983

\2-grams:
-1.8451 <s> GO 0.0000
-0.8909 <s> MEET 0.0000
-1.8451 <s> PICK 0.0000
-1.8451 <s> PICKUP 0.0000
-1.8451 <s> SET 0.0000
-1.8451 <s> SHUTDOWN 0.0000
-1.5441 <s> TAKE 0.0000
-1.5441 <s> TELL 0.0000
-1.5441 <s> TURN 0.0000
-1.5441 <s> WALK 0.0000
-1.2430 <s> WHAT 0.0000
-0.8909 <s> WHO 0.0000
-0.6021 A JOKE 0.0000
-0.6021 A RIDDLE 0.0000
-0.3010 ADAM </s> -0.3010
-0.3010 BACKWARD </s> -0.3010
-0.3010 CONNOR </s> -0.3010
-0.3010 DANIEL </s> -0.3010
-0.3010 DAY IS -0.2840
-0.3010 DOWN </s> -0.3010
-0.3010 FORWARD </s> -0.3010
-0.3010 GO TO 0.0000
-1.4150 IS ADAM 0.0000
-1.4150 IS CONNOR 0.0000
-1.4150 IS DANIEL 0.0000
-1.4150 IS KIM 0.0000
-1.4150 IS NICK 0.0000
-1.4150 IS PAUL 0.0000
-1.4150 IS REBEKAH 0.0000
-1.4150 IS SCOTT 0.0000
-1.4150 IS THE 0.0000
-1.4150 IS TODAY 0.0000
-1.4150 IS TYLER 0.0000
-1.1139 IS YOUR 0.0000
-0.3010 JOKE </s> -0.3010
-0.3010 KIM </s> -0.3010
-0.3010 LEFT </s> -0.3010
-0.3010 ME A 0.0000
-1.2553 MEET ADAM 0.0000
-1.2553 MEET CONNOR 0.0000
-1.2553 MEET DANIEL 0.0000
-1.2553 MEET KIM 0.0000
-1.2553 MEET NICK 0.0000
-1.2553 MEET PAUL 0.0000
-1.2553 MEET REBEKAH 0.0000
-1.2553 MEET SCOTT 0.0000
-1.2553 MEET TYLER 0.0000
-0.3010 NAME </s> -0.3010
-0.3010 NICK </s> -0.3010
-0.3010 PAUL </s> -0.3010
-0.3010 PICK UP 0.0000
-0.3010 PICKUP </s> -0.3010
-0.3010 PICTURE </s> -0.3010
-0.3010 PROBLEM </s> -0.3010
-0.3010 REBEKAH </s> -0.3010
-0.3010 RIDDLE </s> -0.3010
-0.3010 RIGHT </s> -0.3010
-0.3010 SCOTT </s> -0.3010
-0.3010 SET DOWN 0.0000
-0.3010 SHUTDOWN </s> -0.3010
-0.3010 SLEEP </s> -0.3010
-0.6021 TAKE PICTURE 0.0000
-0.6021 TAKE VIDEO 0.0000
-0.3010 TELL ME 0.0000
-0.3010 THE TIME 0.0000
-0.3010 TIME </s> -0.3010
-0.3010 TO SLEEP 0.0000
-0.3010 TODAY </s> -0.3010
-0.6021 TURN LEFT 0.0000
-0.6021 TURN RIGHT 0.0000
-0.3010 TYLER </s> -0.3010
-0.3010 UP </s> -0.3010
-0.3010 VIDEO </s> -0.3010
-0.6021 WALK BACKWARD 0.0000
-0.6021 WALK FORWARD 0.0000
-0.9031 WHAT DAY 0.0000
-0.4260 WHAT IS -0.2478
-0.3010 WHO IS -0.1165
-0.6021 YOUR NAME 0.0000
-0.6021 YOUR PROBLEM 0.0000

\3-grams:
-0.3010 <s> GO TO
-1.2553 <s> MEET ADAM
-1.2553 <s> MEET CONNOR
-1.2553 <s> MEET DANIEL
-1.2553 <s> MEET KIM
-1.2553 <s> MEET NICK
-1.2553 <s> MEET PAUL
-1.2553 <s> MEET REBEKAH
-1.2553 <s> MEET SCOTT
-1.2553 <s> MEET TYLER
-0.3010 <s> PICK UP
-0.3010 <s> PICKUP </s>
-0.3010 <s> SET DOWN
-0.3010 <s> SHUTDOWN </s>
-0.6021 <s> TAKE PICTURE
-0.6021 <s> TAKE VIDEO
-0.3010 <s> TELL ME
-0.6021 <s> TURN LEFT
-0.6021 <s> TURN RIGHT
-0.6021 <s> WALK BACKWARD
-0.6021 <s> WALK FORWARD
-0.9031 <s> WHAT DAY
-0.4260 <s> WHAT IS
-0.3010 <s> WHO IS
-0.3010 A JOKE </s>
-0.3010 A RIDDLE </s>
-0.3010 DAY IS TODAY
-0.3010 GO TO SLEEP
-0.3010 IS ADAM </s>
-0.3010 IS CONNOR </s>
-0.3010 IS DANIEL </s>
-0.3010 IS KIM </s>
-0.3010 IS NICK </s>
-0.3010 IS PAUL </s>
-0.3010 IS REBEKAH </s>
-0.3010 IS SCOTT </s>
-0.3010 IS THE TIME
-0.3010 IS TODAY </s>
-0.3010 IS TYLER </s>
-0.6021 IS YOUR NAME
-0.6021 IS YOUR PROBLEM
-0.6021 ME A JOKE
-0.6021 ME A RIDDLE
-0.3010 MEET ADAM </s>
-0.3010 MEET CONNOR </s>
-0.3010 MEET DANIEL </s>
-0.3010 MEET KIM </s>
-0.3010 MEET NICK </s>
-0.3010 MEET PAUL </s>
-0.3010 MEET REBEKAH </s>
-0.3010 MEET SCOTT </s>
-0.3010 MEET TYLER </s>
-0.3010 PICK UP </s>
-0.3010 SET DOWN </s>
-0.3010 TAKE PICTURE </s>
-0.3010 TAKE VIDEO </s>
-0.3010 TELL ME A
-0.3010 THE TIME </s>
-0.3010 TO SLEEP </s>
-0.3010 TURN LEFT </s>
-0.3010 TURN RIGHT </s>
-0.3010 WALK BACKWARD </s>
-0.3010 WALK FORWARD </s>
-0.3010 WHAT DAY IS
-0.7782 WHAT IS THE
-0.4771 WHAT IS YOUR
-1.2553 WHO IS ADAM
-1.2553 WHO IS CONNOR
-1.2553 WHO IS DANIEL
-1.2553 WHO IS KIM
-1.2553 WHO IS NICK
-1.2553 WHO IS PAUL
-1.2553 WHO IS REBEKAH
-1.2553 WHO IS SCOTT
-1.2553 WHO IS TYLER
-0.3010 YOUR NAME </s>
-0.3010 YOUR PROBLEM </s>

\end\